{"learner":{"attributes":{},"feature_names":[],"feature_types":[],"gradient_booster":{"model":{"gbtree_model_param":{"num_parallel_tree":"1","num_trees":"1"},"iteration_indptr":[0,1],"tree_info":[0],"trees":[{"base_weights":[-5.575114E-1,-6.8658537E-1,-1.761905E-1,-7.068607E-1,2.4016665E-2,-6.375E-1,8.264451E-3,-7.479452E-1,-2.8181818E-1,-7.3170733E-1,-7.500001E-2,7.889907E-2,-5.846154E-1,-7.5879633E-1,2.8571418E-2,-6.347826E-1,9.999999E-2,-7.55E-1,1.3099999E-2,-6.986667E-2,2.1833332E-2,1.5333332E-1,-2.6000002E-1,-1.0000001E-1,-9.432E-2,-7.655012E-1,1.965E-2,2.1833332E-2,-5.24E-2,-9.956E-2,1.965E-2,2.4889998E-2,-6.986667E-2,-1.0211282E-1,1.3099999E-2,1.6404493E-1,-5.24E-2,-5.6666666E-1,2.3288887E-2,-5.24E-2,1.7466666E-2,-7.67757E-1,1.3099999E-2,3.9999988E-2,2.5825711E-2,-6.363636E-1,1.3099999E-2,-7.723005E-1,1.7466666E-2,2.445333E-2,-3.3333334E-1,-9.432E-2,1.3099999E-2,-7.745882E-1,1.3099999E-2,1.7466666E-2,-7.8600004E-2,-6.2941176E-1,-1.0286174E-1,-9.296775E-2,1.965E-2],"categories":[],"categories_nodes":[],"categories_segments":[],"categories_sizes":[],"default_left":[0,0,0,0,0,0,0,0,0,0,0,0,0,0,0,0,0,0,0,0,0,0,0,0,0,0,0,0,0,0,0,0,0,0,0,0,0,0,0,0,0,0,0,0,0,0,0,0,0,0,0,0,0,0,0,0,0,0,0,0,0],"id":0,"left_children":[1,3,5,7,-1,9,11,13,15,17,19,21,23,25,27,29,31,33,-1,-1,-1,35,37,39,-1,41,-1,-1,-1,-1,-1,-1,-1,-1,-1,43,-1,45,-1,-1,-1,47,-1,49,-1,51,-1,53,-1,-1,55,-1,-1,57,-1,-1,-1,59,-1,-1,-1],"loss_changes":[3.2314087E1,8.807434E0,1.4300528E1,8.1887665E0,0E0,2.488718E0,5.113344E0,3.7122803E0,5.9932804E0,8.697815E-1,9.750001E-1,2.789468E0,7.809229E-1,2.7471619E0,4.809524E-1,2.374174E0,1.3553334E0,9.15411E-1,0E0,0E0,0E0,5.99056E-1,2.7857776E0,3.333333E-1,0E0,9.143677E-1,0E0,0E0,0E0,0E0,0E0,0E0,0E0,0E0,0E0,3.5751534E-1,0E0,6.21212E-1,0E0,0E0,0E0,1.8552246E0,0E0,1.1573335E0,0E0,7.494545E-1,0E0,9.2759705E-1,0E0,0E0,8.266666E-1,0E0,0E0,1.6078186E-1,0E0,0E0,0E0,2.233492E0,0E0,0E0,0E0],"parents":[2147483647,0,0,1,1,2,2,3,3,5,5,6,6,7,7,8,8,9,9,10,10,11,11,12,12,13,13,14,14,15,15,16,16,17,17,21,21,22,22,23,23,25,25,35,35,37,37,41,41,43,43,45,45,47,47,50,50,53,53,57,57],"right_children":[2,4,6,8,-1,10,12,14,16,18,20,22,24,26,28,30,32,34,-1,-1,-1,36,38,40,-1,42,-1,-1,-1,-1,-1,-1,-1,-1,-1,44,-1,46,-1,-1,-1,48,-1,50,-1,52,-1,54,-1,-1,56,-1,-1,58,-1,-1,-1,60,-1,-1,-1],"split_conditions":[3.295567E0,2E0,7.8915434E0,1E0,2.4016665E-2,8.038837E0,9.780771E0,1E0,2.948413E0,1E0,1E0,3E0,2E0,3.61236E0,1.3E1,4E0,1.3E1,1E0,1.3099999E-2,-6.986667E-2,2.1833332E-2,3.1E1,8.896553E0,1E0,-9.432E-2,6E0,1.965E-2,2.1833332E-2,-5.24E-2,-9.956E-2,1.965E-2,2.4889998E-2,-6.986667E-2,-1.0211282E-1,1.3099999E-2,3.7513454E0,-5.24E-2,1E0,2.3288887E-2,-5.24E-2,1.7466666E-2,2.1E1,1.3099999E-2,1E0,2.5825711E-2,1E0,1.3099999E-2,4E0,1.7466666E-2,2.445333E-2,9.021869E0,-9.432E-2,1.3099999E-2,1.4313638E0,1.3099999E-2,1.7466666E-2,-7.8600004E-2,1E0,-1.0286174E-1,-9.296775E-2,1.965E-2],"split_indices":[11,23,0,9,0,14,14,13,11,5,15,2,2,25,3,1,3,13,0,0,0,17,0,1,0,12,0,0,0,0,0,0,0,0,0,14,0,8,0,0,0,3,0,17,0,3,0,26,0,0,0,0,0,25,0,0,0,22,0,0,0],"split_type":[0,0,0,0,0,0,0,0,0,0,0,0,0,0,0,0,0,0,0,0,0,0,0,0,0,0,0,0,0,0,0,0,0,0,0,0,0,0,0,0,0,0,0,0,0,0,0,0,0,0,0,0,0,0,0,0,0,0,0,0,0],"sum_hessian":[6.58E2,4.91E2,1.67E2,4.8E2,1.1E1,4.7E1,1.2E2,4.37E2,4.3E1,4E1,7E0,1.08E2,1.2E1,4.31E2,6E0,2.2E1,2.1E1,3.9E1,1E0,2E0,5E0,8.9E1,1.9E1,3E0,9E0,4.28E2,3E0,5E0,1E0,1.9E1,3E0,1.9E1,2E0,3.8E1,1E0,8.8E1,1E0,1.1E1,8E0,1E0,2E0,4.27E2,1E0,1.9E1,6.9E1,1E1,1E0,4.25E2,2E0,1.4E1,5E0,9E0,1E0,4.24E2,1E0,2E0,3E0,3.3E1,3.91E2,3E1,3E0],"tree_param":{"num_deleted":"0","num_feature":"28","num_nodes":"61","size_leaf_vector":"1"}}]},"name":"gbtree"},"learner_model_param":{"base_score":"8E-1","boost_from_average":"0","num_class":"0","num_feature":"28","num_target":"1"},"objective":{"name":"reg:squarederror","reg_loss_param":{"scale_pos_weight":"1"}}},"version":[2,1,1]}